digraph Tree {
node [shape=box] ;
0 [label="X[5] <= 0.5\nentropy = 0.926\nsamples = 1050\nvalue = [692, 358]"] ;
1 [label="X[3] <= 0.5\nentropy = 0.928\nsamples = 364\nvalue = [125, 239]"] ;
0 -> 1 [labeldistance=2.5, labelangle=45, headlabel="True"] ;
2 [label="X[0] <= 2.5\nentropy = 0.444\nsamples = 195\nvalue = [18, 177]"] ;
1 -> 2 ;
3 [label="X[1] <= 0.5\nentropy = 1.0\nsamples = 2\nvalue = [1, 1]"] ;
2 -> 3 ;
4 [label="entropy = 0.0\nsamples = 1\nvalue = [0, 1]"] ;
3 -> 4 ;
5 [label="entropy = 0.0\nsamples = 1\nvalue = [1, 0]"] ;
3 -> 5 ;
6 [label="X[0] <= 17.5\nentropy = 0.43\nsamples = 193\nvalue = [17, 176]"] ;
2 -> 6 ;
7 [label="entropy = 0.0\nsamples = 14\nvalue = [0, 14]"] ;
6 -> 7 ;
8 [label="X[1] <= 0.5\nentropy = 0.453\nsamples = 179\nvalue = [17, 162]"] ;
6 -> 8 ;
9 [label="entropy = 0.567\nsamples = 75\nvalue = [10, 65]"] ;
8 -> 9 ;
10 [label="entropy = 0.356\nsamples = 104\nvalue = [7, 97]"] ;
8 -> 10 ;
11 [label="X[0] <= 38.5\nentropy = 0.948\nsamples = 169\nvalue = [107, 62]"] ;
1 -> 11 ;
12 [label="X[0] <= 32.5\nentropy = 0.957\nsamples = 164\nvalue = [102, 62]"] ;
11 -> 12 ;
13 [label="X[0] <= 25.5\nentropy = 0.943\nsamples = 158\nvalue = [101, 57]"] ;
12 -> 13 ;
14 [label="entropy = 1.0\nsamples = 28\nvalue = [14, 14]"] ;
13 -> 14 ;
15 [label="entropy = 0.916\nsamples = 130\nvalue = [87, 43]"] ;
13 -> 15 ;
16 [label="X[0] <= 36.5\nentropy = 0.65\nsamples = 6\nvalue = [1, 5]"] ;
12 -> 16 ;
17 [label="entropy = 0.0\nsamples = 4\nvalue = [0, 4]"] ;
16 -> 17 ;
18 [label="entropy = 1.0\nsamples = 2\nvalue = [1, 1]"] ;
16 -> 18 ;
19 [label="entropy = 0.0\nsamples = 5\nvalue = [5, 0]"] ;
11 -> 19 ;
20 [label="X[0] <= 3.5\nentropy = 0.666\nsamples = 686\nvalue = [567, 119]"] ;
0 -> 20 [labeldistance=2.5, labelangle=-45, headlabel="False"] ;
21 [label="entropy = 0.0\nsamples = 13\nvalue = [0, 13]"] ;
20 -> 21 ;
22 [label="X[1] <= 0.5\nentropy = 0.628\nsamples = 673\nvalue = [567, 106]"] ;
20 -> 22 ;
23 [label="X[0] <= 45.5\nentropy = 0.492\nsamples = 530\nvalue = [473, 57]"] ;
22 -> 23 ;
24 [label="X[0] <= 10.0\nentropy = 0.503\nsamples = 514\nvalue = [457, 57]"] ;
23 -> 24 ;
25 [label="entropy = 0.863\nsamples = 7\nvalue = [5, 2]"] ;
24 -> 25 ;
26 [label="entropy = 0.495\nsamples = 507\nvalue = [452, 55]"] ;
24 -> 26 ;
27 [label="entropy = 0.0\nsamples = 16\nvalue = [16, 0]"] ;
23 -> 27 ;
28 [label="X[0] <= 18.0\nentropy = 0.927\nsamples = 143\nvalue = [94, 49]"] ;
22 -> 28 ;
29 [label="entropy = 0.0\nsamples = 5\nvalue = [0, 5]"] ;
28 -> 29 ;
30 [label="X[0] <= 56.5\nentropy = 0.903\nsamples = 138\nvalue = [94, 44]"] ;
28 -> 30 ;
31 [label="entropy = 0.933\nsamples = 126\nvalue = [82, 44]"] ;
30 -> 31 ;
32 [label="entropy = 0.0\nsamples = 12\nvalue = [12, 0]"] ;
30 -> 32 ;
}